#include "hash_model_data.h"

namespace hash_kws {

namespace {

// Generated from bundle: /content/code/training/hash_artifacts/hash_kws12_iterlab_v1_hash_deeper_fair_ce_exact_microfrontend/hash_kws_student_student.pt
// Experiment tag: hash_kws12_iterlab_v1_hash_deeper_fair_ce_exact_microfrontend
// Frontend in training bundle: exact_microfrontend
// Note: runtime input semantics must match the training frontend for accuracy to hold.

constexpr int8_t kStemCodebook[] = {
    1, 3, -14, 24, -5, -17, 14, -43, -14, -11, -7, 5, 3, -20, -22, -11,
    7, 44, -47, -19, 3, -13, -3, 5, -15, 18, -20, -2, -14, 7, 58, -21,
    30, -7, 24, 13, -18, -4, 0, 35, 1, -5, 66, -28, -3, 13, 8, -83,
    -9, -2, 11, 27, 36, 0, -4, -2, 2, 12, 104, 60, 1, -24, 3, -3,
    -2, 4, 7, 0, 25, 12, 24, 0, 48, 14, -29, 2, -15, 16, 1, -31,
    127, 5, 0, -28, -10, -22, -15, 2, -6, 2, -27, -1, 5, -22, 27, 14,
    -3, 14, -18, -43, 1, 32, 30, -4, 42, -18, -10, -5, -2, 18, 27, -2,
    -8, -3, -1, 78, 30, -70, 10, -4, -2, -1, 7, -30, 17, 19, -17, 5,
    -44, -19, 9, -5, -3, 1, -11, -21, 1, -14, -5, 0, 5, 15, 23, -19,
    1, 31, -39, -4, -4, -26, -1, -27, -10, -24, 6, -16, 10, -61, -3, -5,
    4, -8, -4, -2, -32, 8, -15, -3, 33, -3, -26, -5, -52, -1, 11, -26,
    14, 19, 21, -39, 8, 23, 19, -12, -2, 9, -29, -23, -12, 96, 1, 9,
    -20, -3, 1, -32, 9, 26, -6, -13, -21, -1, 70, -1, 0, 16, 0, -13,
    32, -5, -12, -3, -2, 6, -1, 18, 29, -11, -8, -2, 3, -33, 2, -3,
    22, -20, 13, 18, 25, -38, -1, 13, -14, -1, -1, 5, -13, -1, 2, -8,
    -13, 0, 35, -30, -16, -3, 2, -35, 8, 16, -25, 10, -1, 7, -17, 47,
    0, -18, -34, 19, -13, -8, 2, -5, -15, 15, -3, 2, -11, -63, 12, 4,
    -39, 0, 1, -15, 39, -16, -3, -6, -5, 28, -2, -13, -2, 0, -12, -27,
    -17, 48, -1, -5, -21, 14, 3, -1, 1, -7, -40, -3, -25, 23, 16, -7,
    16, -1, 8, 13, -23, 2, -34, -2, -5, 91, -9, 21, 29, -9, 24, -17,
    -26, -1, -3, 10, 8, -22, 15, -29, 45, 34, -18, 31, 1, 12, 2, 36,
    52, 7, -32, -21, 43, -16, 18, -30, 8, -16, -44, 12, -1, -5, 1, -25,
    16, 2, -25, 15, -1, 66, -13, -12, 15, -7, -10, 7, 1, 14, -28, -13,
    -17, 2, -12, -5, -5, -31, 7, 1, -13, 10, 10, 33, -26, 7, 1, -31,
    19, -30, 0, -10, -10, -40, 0, -4, -57, -2, -9, -24, -34, 0, 23, 9,
    -8, -3, -20, 7, 0, -18, 22, 6, 1, 0, 13, -16, 1, 1, 5, 2,
    33, -20, -9, 1, 16, 16, -22, -34, -3, 12, 0, 27, -28, -4, 31, 21,
    -10, 6, 20, 29, 3, 1, -22, -15, -20, 43, -23, -21, -10, 15, -26, -26,
    0, -21, 29, -4, -55, 40, 61, 9, 13, 30, -1, 87, -25, -31, -5, -5,
    47, -10, -50, -8, 26, -11, 7, -12, -6, -25, -1, -4, -2, -9, 9, 1,
    0, -28, 8, 55, 4, -41, -5, 6, 22, -6, 20, 25, -1, 1, -13, -21,
    4, 3, 29, -5,
};

constexpr float kStemPostScale[] = {
    0.0274524298f, 0.0131988935f, 0.0663866773f, 0.0101192212f, 0.0614218153f, 0.0162766781f, 0.0240329467f, 0.0233545844f,
    0.0220983848f, 0.0526469909f, 0.0195261817f, 0.051181864f, 0.0150989648f, 0.0236263871f, 0.0142066609f, 0.0122181121f,
    0.0201264769f, 0.0169047639f, 0.025105387f, 0.0624888912f, 0.0484807082f, 0.0356820077f, 0.0290185697f, 0.0242739748f,
    0.00941671804f, 0.00787928887f, 0.0408770107f, 0.0173563752f, 0.0107734418f, 0.0699072033f, 0.0502869487f, 0.0267868191f,
    0.0201193057f, 0.0299614985f, 0.00483641867f, 0.0650268272f, 0.025840722f, 0.0625862628f, 0.0677033663f, 0.0756662562f,
    0.0583017282f, 0.0573115386f, 0.026873894f, 0.0418500416f, 0.00388057716f, 0.0438049249f, 0.0495975651f, 0.0272251014f,
    0.0157587882f, 0.0291513857f, 0.0441569127f, 0.0274223555f, 0.00761247426f, 0.0133383358f, 0.0274064709f, 0.0128270928f,
    0.0520713218f, 0.0191278346f, 0.0190017261f, 0.041222699f, 0.00650399737f, 0.0625844896f, 0.031084476f, 0.0189757403f,
};

constexpr float kStemPostBias[] = {
    -0.370643318f, 0.177714333f, 0.201514691f, 0.83929497f, 0.400850654f, -0.168413132f, 0.861433983f, -0.690443754f,
    0.181137383f, 0.0419436395f, -0.427700818f, -0.583491921f, -0.306531191f, 0.345791101f, 0.220764458f, -0.222054154f,
    -0.606688023f, -0.727348149f, -0.575681806f, 0.436254203f, 0.801969349f, 0.545996368f, -0.449672103f, -0.0518669486f,
    -0.28775537f, -0.664759517f, 0.621991217f, -0.600734651f, -0.136847198f, 0.375429153f, 0.173612043f, -0.0414918065f,
    0.563298404f, -0.657793105f, -0.321603745f, 0.321129322f, -0.471146375f, -0.30761081f, 0.581059992f, -0.338875234f,
    0.505832851f, -0.285668314f, 0.20027715f, 0.878555059f, 0.762812018f, -0.479189038f, -0.596189022f, -0.534612179f,
    -0.646461606f, -0.673870802f, -0.439045668f, -0.432548285f, -0.761044025f, -0.257891953f, -0.589128971f, -0.228312984f,
    0.0967734158f, 0.625607371f, 0.647040725f, -0.425230086f, -0.325269938f, 0.216103122f, 0.694581568f, -0.184050962f,
};

constexpr int8_t kBlock0DepthwiseCodebook[] = {
    -19, 0, 2, -27, -15, -3, -21, -4, 0, -2, -7, -11, 0, 21, -71, 31,
    -2, 4, -5, 2, 28, 16, -9, -1, 21, -29, -13, 2, 0, -12, 21, 4,
    -1, 16, 3, 14, -6, -28, -31, -18, -5, -67, 3, -35, 23, 0, -25, -14,
    2, -31, -12, -21, -14, 23, 12, 6, 0, -44, -21, -5, -27, 6, 26, 65,
    24, -18, 3, -32, 4, 0, -3, 10, -87, -7, -60, -37, -2, -2, -8, -75,
    -10, -22, 23, -7, 6, 25, -1, 1, -20, -25, -8, 25, 8, 2, 16, -43,
    42, 35, 1, -11, 12, 1, -9, -3, -42, -1, 7, -8, -1, 1, -10, -14,
    -5, -30, 24, 57, -5, 5, 18, -4, 0, -17, -15, -12, 4, 11, -20, -2,
    -5, -5, 9, -2, -10, -1, 9, 0, -16, -24, -1, -4, -25, -6, 2, 7,
    7, 18, 0, -40, -13, -1, -9, 24, 19, 1, -17, -4, 2, 2, -14, -3,
    -2, -12, -39, -2, 1, 11, -18, 0, -1, -12, -25, 30, -2, 4, -16, -1,
    -23, -81, -2, -1, -5, -3, -15, -4, -10, -22, 0, 38, 20, -1, 1, 31,
    1, -38, -14, 10, -4, -1, -24, -28, 13, -2, -17, -2, -54, -25, 36, 14,
    3, -11, -32, -8, -64, -9, 7, -33, 4, -1, 17, 1, 0, 12, -1, 7,
    -29, 1, 36, -19, 10, -3, 1, -49, 31, 16, 16, -9, -2, 25, -13, 0,
    2, -4, 18, 16, -24, -18, -19, 18, -17, -3, 0, -10, -4, -17, -20, -11,
    -13, 5, 5, -24, -25, 2, 0, -3, 12, -45, 10, 22, 4, -19, 33, -73,
    0, -4, -36, -7, 31, -10, -10, -1, -16, -20, -44, -4, -4, 64, 13, 44,
    -1, -18, -1, -4, -127, -24, 0, 13, 19, 7, -26, -26, 14, 4, -10, -11,
    10, 1, 15, -1, -2, -2, -4, 48, 2, 32, 23, -56, -1, 1, 40, -14,
    1, 0, 14, -1, 3, -7, -15, -3, 3, 16, -4, -2, 20, -4, -1, 5,
    6, -3, -2, -17, 2, -10, 2, 1, -9, 16, -11, -7, -6, -1, 15, -9,
    6, 0, -21, -55, 76, -15, -8, -9, -3, 20, 30, -14, 1, 47, -13, -2,
    1, 15, -11, 2, -26, -17, 8, 47, -55, 18, -8, 2, -23, -12, 2, -21,
    22, -9, -7, 46, -11, -2, 38, -5, 17, 1, -12, 2, 6, 50, 11, -21,
    -70, -4, -1, -16, -18, -4, -18, 0, -2, -19, -20, -46, -23, 0, -11, -16,
    38, 10, 14, 4, -6, -3, -53, 37, -3, -16, -8, 5, 41, -15, 25, 17,
    -15, -17, 33, -4, -22, -2, -3, -18, 11, -18, 3, 29, -36, 34, -1, 17,
    6, -18, -26, 2, 3, 4, -13, -45, 8, 0, -9, 10, 31, -24, -4, 17,
    1, 14, -13, -10, 5, 9, -31, -9, -3, 8, 25, 2, 23, -5, 36, -1,
    10, -8, 10, -3, -2, 18, -1, -45, -10, -20, 1, -9, -35, -58, 1, -26,
    6, -1, 0, -11,
};

constexpr float kBlock0DepthwisePostScale[] = {
    5.94903135f, 17.9304428f, 3.70813632f, 11.9803343f, 11.4727325f, 48.3728065f, 2.42755365f, 8.68457413f,
    9.920578f, 4.99808741f, 5.77575731f, 2.6796782f, 16.5970783f, 9.44140053f, 9.80344772f, 40.6081467f,
    4.88569593f, 4.89915895f, 5.94364595f, 1.68227923f, 6.15781879f, 7.08906794f, 4.97152519f, 5.3566699f,
    159.778091f, 24.7189236f, 4.11771059f, 8.76995087f, 49.6462479f, 2.49942756f, 4.48157549f, 3.00673103f,
    5.60084963f, 3.73295379f, 148.141159f, 3.76947665f, 5.21164799f, 7.26837778f, 4.36310911f, 2.62594628f,
    8.43365955f, 3.6028409f, 6.44711351f, 4.69412088f, 24.0014915f, 4.85875559f, 5.44933176f, 8.60033321f,
    19.728405f, 8.75557041f, 4.26825285f, 6.34193754f, 27.0390854f, 69.0814514f, 9.22048283f, 8.78682995f,
    2.94115877f, 9.11514187f, 5.97941875f, 10.3131428f, 235.983444f, 3.47125506f, 9.03884506f, 43.7444725f,
};

constexpr float kBlock0DepthwisePostBias[] = {
    0.532057345f, -0.246403903f, 0.685514092f, 0.599320471f, 0.402630508f, -0.477514386f, 0.617864728f, -0.936891794f,
    0.566204011f, 0.0955446362f, 0.975583315f, 0.640869915f, 0.976056814f, 0.693793237f, -0.708592176f, -0.208683223f,
    -0.78711772f, 0.56632477f, 0.713944614f, 0.710312426f, 0.471567631f, -0.617999673f, -1.16705787f, 1.10828757f,
    -0.19521004f, -0.946388364f, 0.774649143f, -0.116290137f, -0.262219936f, 0.0865733027f, 0.951984048f, 0.840532184f,
    0.65498507f, 1.14446318f, 0.0378903076f, -0.186770409f, 0.517227352f, 0.0966325253f, 0.867909968f, 0.339827478f,
    1.00822926f, 0.617522359f, 0.659223199f, 0.568219066f, 1.08763206f, -0.856335044f, 0.401460677f, 0.925750911f,
    0.523251534f, 0.725804567f, 0.444639683f, -0.626074731f, -1.19842041f, -0.603245735f, 0.305699676f, -0.868868232f,
    0.75328207f, 0.40818879f, 0.688304305f, -0.202317506f, -0.292101622f, 0.57431978f, 0.965709805f, -0.123187572f,
};

constexpr int8_t kBlock0PointwiseCodebook[] = {
    -7, 11, 47, 65, -18, -28, 45, -20, 53, 30, 1, 8, 25, -64, -32, 4,
    43, 29, -31, 7, 78, 2, -11, 35, -20, -62, 6, -30, -43, 26, -48, -61,
    46, -28, 44, -23, -34, -5, -127, -79, 36, 9, 52, -63, -18, -12, -4, -17,
    19, 18, -25, 5, -45, 47, -25, -27, 17, -17, 35, 16, 27, -33, 15, -28,
    -1, 76, 49, 30, 34, -5, -27, -34, -26, -9, -13, 25, 38, 90, -63, -22,
    -48, 8, 5, -78, 55, 59, -28, 12, 59, -36, 49, -9, 29, 8, 47, -64,
    -20, -72, 0, 38, -33, 12, -10, 13, -52, -5, 24, -13, 7, 107, 21, -32,
    -46, 53, -32, 49, -38, 19, 30, 40, -32, -28, -17, -18, 24, -88, 6, -6,
    34, -33, 54, -58, 22, -18, 17, -1, 39, 38, -20, 12, -66, 0, 37, -54,
    30, 10, 70, -29, -49, -31, -37, 6, 8, -4, -32, 11, -7, -32, 69, 7,
    51, 69, -16, 1, -3, 4, 8, 2, -28, -33, 43, -54, 0, 36, -14, 11,
    -27, 40, -82, 73, 51, -1, -38, -8, 65, -26, -90, -1, -30, -34, 12, -11,
    -14, -3, 2, 38, -5, -10, -39, 30, 39, -1, 16, 22, 13, 2, 8, 77,
    -2, -19, 11, 15, -34, -41, -56, -66, 34, 11, 30, 41, -58, -5, -14, -57,
    -40, 29, 27, 49, 35, 73, 52, -20, -11, 1, -11, -43, -5, 3, -1, -28,
    0, 25, 18, 51, 9, -14, -40, -32, -7, -54, -21, -44, -16, 28, -19, -44,
    23, 0, -38, -31, 16, 24, -7, -2, -33, -5, -4, -4, -1, 15, -15, 16,
    -1, -11, 33, -21, 8, -25, 106, 34, -22, -22, -28, -20, 35, 73, 4, -47,
    47, -78, 28, -45, -60, 1, 27, 37, -45, -18, -36, 36, 23, -11, -7, -12,
    -25, 2, 44, -46, -6, 23, 33, -44, 28, 18, -48, -11, 77, 5, -47, -25,
    52, -5, 60, 38, 24, -32, 68, 1, 39, 18, 2, 52, -3, -2, 41, 53,
    -23, 3, 25, -65, -24, -11, -46, -9, -82, 6, 96, 20, -23, 42, 0, -6,
    19, 12, 28, 95, 27, 17, 52, 11, -7, 13, 68, 17, -1, -54, 22, -4,
    -11, -23, 20, 37, 6, -27, 14, -4, -58, 33, -82, -14, -40, 14, 40, 10,
    50, -22, -41, -2, 47, 28, 17, 69, 33, 26, -13, -8, -17, 14, 69, 4,
    25, -38, 33, -106, -31, -16, 37, 20, 13, 1, -20, -25, -17, -2, -8, -3,
    -39, 10, -30, 27, 10, 31, -48, 25, 15, 35, -31, -34, -20, -45, 30, -71,
    -26, 32, 1, -37, 84, -31, -20, 9, 117, 40, -9, -12, 16, 66, -36, 25,
    0, -1, -28, 46, 43, 0, 74, 49, 28, -10, -61, -9, -59, 79, 37, 21,
    -50, 41, 10, 80, -26, -24, -33, 31, -44, 95, 13, -50, -35, 5, 5, -9,
    19, -16, 3, 32, -15, -4, 30, 17, -4, -41, 10, -29, -12, -16, 31, -28,
    24, 35, -20, -83,
};

constexpr float kBlock0PointwisePostScale[] = {
    1.7958014f, 2.20405436f, 1.9708426f, 1.06649792f, 1.71859717f, 2.03103948f, 2.30404472f, 2.09905863f,
    1.38693321f, 2.10321307f, 2.04023695f, 2.72119427f, 1.48954391f, 2.87970924f, 1.73472154f, 2.04569006f,
    2.79115438f, 1.43731785f, 1.81529808f, 2.23951602f, 2.95713615f, 1.228585f, 2.5660131f, 2.81592607f,
    2.34051728f, 1.41342258f, 3.52773857f, 2.48662806f, 2.17572498f, 1.83069706f, 1.92073786f, 2.30423522f,
    1.31580865f, 2.87328482f, 2.53999305f, 1.39698255f, 2.11891437f, 1.56973672f, 2.6824069f, 1.83262241f,
    1.91958427f, 2.44637442f, 1.17318666f, 0.862079024f, 3.18744564f, 1.423648f, 1.43320441f, 2.99298787f,
    1.62412083f, 2.70822167f, 1.31854427f, 2.10066533f, 1.24393916f, 2.52452254f, 1.58492827f, 1.66282535f,
    1.16462302f, 2.15516996f, 1.6992712f, 1.07622373f, 2.61881375f, 2.49069786f, 2.44894147f, 2.58287358f,
};

constexpr float kBlock0PointwisePostBias[] = {
    -1.23212957f, 0.864770651f, -0.611691594f, -0.0235978961f, 0.0556518435f, 0.56363368f, -0.552818358f, -0.557392955f,
    0.337959111f, -0.238587976f, -1.11967528f, -0.898240805f, 1.05534828f, -0.262620091f, -0.475681603f, 1.56630516f,
    -0.127009064f, 0.0413986742f, -0.0802148581f, 0.0962275714f, -0.0601454675f, -0.259459853f, -0.433310986f, -0.595122397f,
    -0.724910378f, -0.231958032f, -0.0239577368f, -0.838436663f, 0.0193344802f, 0.773133636f, -0.0607467294f, -1.46977401f,
    0.724664271f, 0.106885895f, -1.14846826f, 0.514198244f, -0.893851578f, -0.0715118349f, -0.609482825f, -0.232959732f,
    -0.597825944f, -0.604743481f, 0.321643978f, 0.644926786f, -0.684749126f, -0.176806495f, 1.17646527f, -0.465003133f,
    -0.722736657f, 1.02941442f, -0.0343369842f, -0.933597088f, -0.0537264347f, -0.137231305f, -0.26567781f, -0.515652895f,
    0.171090692f, -0.205701947f, -0.701752007f, 0.184753105f, 1.25205827f, -0.433305323f, -1.00497997f, 1.3218168f,
};

constexpr int8_t kBlock1DepthwiseCodebook[] = {
    -5, 23, 10, -1, -32, 2, 17, 4, -39, 22, 41, -16, -52, -33, -2, -17,
    -4, -9, 15, 25, 26, -30, -50, -25, -5, -20, 19, -40, -3, 3, 100, -4,
    -33, -20, 2, -26, -9, 32, -54, 28, -1, -36, 14, 63, -2, 5, -27, 74,
    -88, 9, -32, -54, -6, 12, -16, 15, -2, -2, -84, 32, 10, -22, -36, -7,
    0, -37, -5, -1, 18, 4, -26, 36, 26, -36, -4, -9, -2, -55, -4, -39,
    -98, -4, 36, 16, -22, -1, 5, 10, 43, 2, -18, -14, 16, 1, -7, -16,
    -3, -2, 36, 27, -2, 6, -24, 7, -3, -1, -9, -1, 32, -3, -19, 3,
    -25, -25, 26, -2, 43, 16, 3, -92, 6, -11, 7, -6, -2, -26, -1, 5,
    40, -10, -3, -11, 2, -2, 6, 14, 3, 0, 14, -30, -31, -22, -2, -10,
    -2, 11, 48, 10, 3, -8, -13, 11, 14, 19, -31, 0, -10, 43, -37, 1,
    -10, -36, 5, 22, 93, -14, 1, 42, -27, -16, -31, 22, -33, 17, -53, 24,
    -127, 0, -52, 57, 7, 8, 59, -12, 4, 51, 8, 31, 2, 23, 7, -17,
    17, 33, -10, -69, 9, -2, 30, 14, -37, -58, -15, 2, 29, 5, 27, 0,
    1, -3, 11, 39, -9, 20, 56, 20, 16, -15, 23, 2, -4, -2, -34, 42,
    -9, 31, 0, 12, 4, -16, -1, -51, 5, 33, 9, 26, -61, -1, -13, -9,
    -34, 6, 25, -16, 13, -1, -35, -20, 1, 11, -4, 6, 1, 2, -46, -12,
    41, -14, -34, -5, 37, -1, -7, -3, 16, 10, 2, 0, 4, -68, -1, 1,
    30, 7, 2, 1, 0, 12, 4, -21, -21, 4, -4, -8, -78, 1, 21, -5,
    -18, -1, -6, -6, -2, -28, -41, 16, -5, 3, 5, 14, 4, 33, -1, -59,
    12, -18, 33, -1, -8, -58, 1, 2, -22, -40, 33, -11, -37, -5, -2, 7,
    0, 5, 6, -37, 6, -59, -13, -101, -12, -1, 28, -63, 15, 44, 32, -33,
    -10, 41, -20, 20, 1, 33, 5, 36, 3, -24, -34, 20, -41, 35, -4, 3,
    23, 4, -20, 1, 0, -9, 7, 3, 77, 26, -6, 15, 2, -22, -21, -54,
    9, -19, 37, 0, 21, -50, -5, -8, 27, -29, -7, 33, 54, -20, -4, -15,
    -80, 16, 14, -11, -19, 77, -3, -9, -4, 1, -12, -31, -45, -15, -25, 10,
    0, 16, -8, -5, -3, 7, -33, 28, 12, -21, -14, 0, -28, 18, -37, 1,
    -13, 40, 32, -14, 20, 40, 3, -7, 63, 11, 2, -30, 19, 2, -2, -16,
    -24, -1, -15, 7, 49, 1, 10, -21, 22, 2, 23, -15, 1, -23, 4, 18,
    3, 35, 32, -29, 1, 39, 15, -5, -13, -34, -1, -1, 4, -71, 8, 2,
    23, -15, -22, -69, 29, 2, 6, 12, 75, 21, -2, 1, 25, -26, -7, -27,
    13, 0, 33, 27, -12, -1, -31, 23, -52, 32, 24, 10, -1, -80, -7, -3,
    -24, -40, 9, 22,
};

constexpr float kBlock1DepthwisePostScale[] = {
    1.87490129f, 10.4596481f, 3.98686075f, 5.51209021f, 6.745502f, 5.77950191f, 3.3182838f, 5.55035257f,
    11.0915041f, 2.98995519f, 5.26210499f, 3.21541762f, 9.23589134f, 6.50996494f, 3.19152594f, 3.95525122f,
    5.82840109f, 7.36820936f, 5.7966423f, 5.54240084f, 3.35115027f, 9.95029926f, 5.94380045f, 6.22574997f,
    3.90832758f, 15.806715f, 6.21412182f, 2.94623828f, 4.15315723f, 3.92249322f, 5.35770273f, 6.64803743f,
    8.88174248f, 5.22520018f, 5.7705369f, 5.39112186f, 7.07938337f, 7.40739775f, 3.23383498f, 11.1261959f,
    11.2096682f, 3.51935458f, 5.481112f, 10.4906149f, 7.20955229f, 4.30350256f, 8.39336777f, 3.38172364f,
    6.26644182f, 2.59070516f, 5.07297421f, 3.98120379f, 7.97404003f, 3.18994975f, 2.60691452f, 4.19642019f,
    2.88471079f, 2.76010752f, 5.26517963f, 8.09781742f, 10.2623358f, 5.22209787f, 10.3605318f, 2.05122423f,
};

constexpr float kBlock1DepthwisePostBias[] = {
    0.580448687f, -0.0533953011f, 0.340074778f, -0.974324644f, 0.938353419f, -1.37318182f, -0.720680654f, 0.174482703f,
    0.866952419f, 0.265644997f, -0.653986335f, 1.26581717f, 1.44154763f, -0.0960146487f, -0.942640781f, 1.075266f,
    1.23034668f, -0.186885759f, 0.738558173f, 0.051208593f, 0.983510971f, 0.657961607f, -0.691090107f, -0.470239937f,
    0.542274773f, -0.755909026f, -0.13205038f, 0.500155151f, 1.33762252f, 0.738905668f, 0.0705169439f, -0.360244811f,
    -0.526848316f, -0.156616986f, -1.05127466f, -0.812238455f, -0.250724167f, 0.415510476f, 0.775819659f, 0.109691009f,
    -0.488992065f, 1.12525678f, -0.301442623f, -0.106590897f, -0.185007468f, 0.112174466f, 0.688051462f, -0.111288592f,
    0.802076817f, 0.843747497f, 1.44839406f, 0.395824432f, -0.214762092f, 0.820253491f, 0.30429706f, -0.324611604f,
    -1.02491748f, 0.599660695f, -0.467704177f, 0.481366545f, -0.903297365f, -1.18917894f, -0.183106646f, -0.999897838f,
};

constexpr int8_t kBlock1PointwiseCodebook[] = {
    61, 11, -110, 62, 1, 17, -46, 41, -10, -13, -54, 12, -72, -39, 37, -17,
    40, 5, -25, 30, 11, -9, -51, -59, 45, -32, 23, -23, 36, 50, -27, -58,
    15, -30, -20, -1, -20, 6, 2, 28, -44, 55, -103, 115, 38, 7, -22, 88,
    -10, -41, 74, -24, 25, 20, 33, 90, 4, 38, 22, -31, -6, -5, -9, -85,
    -46, -49, -76, 34, -52, 7, 66, -61, -47, -56, -17, -21, 2, 14, -31, -40,
    -5, -18, 21, -41, -50, 39, 65, 4, 1, 14, 67, -81, 25, -54, -107, -24,
    6, -7, 23, -23, -37, -94, 17, 5, 57, -30, 2, -2, 9, -51, -84, 6,
    -33, 12, 25, 29, 37, -85, -22, 19, -1, 56, 21, 32, 0, 17, -78, -46,
    53, -37, -6, 13, -63, -107, 23, -12, 72, 24, -10, 8, 65, -50, -8, 13,
    -68, -21, 75, -27, 13, -10, 14, -34, 98, 13, 28, -18, 12, -56, 10, -66,
    -15, 75, 73, -7, 42, -52, 29, -27, 45, 23, 11, 15, 33, 17, -22, -54,
    -10, -56, 66, -41, 21, -37, -22, 4, 14, 0, -58, 40, -22, 35, 18, -32,
    -45, -103, 14, -9, -9, 41, -53, 0, 33, -4, -13, -30, 74, -4, 5, -36,
    72, -63, -32, 34, -23, -40, 20, -25, 106, 5, -22, -39, 55, 5, 14, -10,
    -56, 27, -34, 4, 80, 14, 14, 32, 31, 11, 50, 106, 31, 16, -34, -28,
    -2, -18, -30, -30, -6, -24, -1, 10, -41, 78, -22, 8, -38, 33, -72, -8,
    -112, 52, 19, 14, -6, 5, 27, -9, -27, 13, -29, 28, 8, 16, -32, -19,
    -50, 23, 41, -16, -100, 103, 17, 44, 6, -92, -25, 38, 24, 17, 92, -18,
    -20, 42, -29, -44, -21, 22, 53, 22, -4, -54, -44, 3, -61, -5, -38, 37,
    26, 35, 52, -108, 57, 48, -50, 24, 54, 2, -46, -13, -33, -32, -34, 18,
    -24, 22, -2, -11, -41, -33, 5, -17, 51, 9, -40, -35, -81, -15, -3, 12,
    -40, 17, -58, -55, 7, -29, 9, 23, 90, -33, 74, 39, -62, -5, 13, -40,
    6, 5, 28, 45, 31, -70, -37, -3, 19, -7, -40, -2, 107, -21, 6, 19,
    26, 20, 23, -39, -27, -15, -42, 10, -48, 27, -26, -99, -2, -22, 1, 46,
    28, 3, -57, -16, -5, 12, -55, -48, -127, -42, 6, -26, 1, 38, -25, -8,
    12, -2, -24, 4, -53, -25, -22, -15, -56, -24, -86, -14, 22, -18, -12, -26,
    8, -62, -56, -8, -85, -20, 14, -80, 1, 7, 22, -23, 65, -23, -13, 52,
    48, 45, 97, -1, 81, -14, 44, -22, -4, 33, -90, 82, -44, -17, -38, 37,
    35, 65, -46, 27, 39, -8, 12, -39, -37, 36, -40, -29, 38, -61, -78, 38,
    120, 27, -86, 23, -15, 67, -52, -42, -8, -20, -4, 4, 16, -31, -22, 36,
    47, -1, -70, -108, 35, -34, -32, 50, 7, -83, -52, 15, 25, -33, 42, -9,
    -15, 17, -10, -34,
};

constexpr float kBlock1PointwisePostScale[] = {
    1.81444561f, 1.00699008f, 2.15786862f, 1.60853553f, 0.905249238f, 1.47670281f, 1.27799475f, 2.59834099f,
    1.61510611f, 1.78073728f, 1.27251959f, 1.354406f, 2.62582612f, 2.26024175f, 1.65663898f, 1.51685083f,
    1.3951416f, 2.99982548f, 1.73952115f, 1.35256588f, 1.9218812f, 2.6328795f, 2.41017747f, 1.48590076f,
    2.10370755f, 1.49010825f, 1.78417194f, 1.78060722f, 1.93775332f, 1.87953937f, 1.35787117f, 1.81712472f,
    2.51677108f, 2.50829911f, 2.52792668f, 2.18649554f, 1.15372682f, 2.12546539f, 1.68953061f, 1.2726897f,
    2.05741334f, 2.59879613f, 1.63827467f, 1.30800152f, 2.08987999f, 2.15232635f, 1.8770566f, 1.64151597f,
    2.64708376f, 1.33586025f, 1.6092664f, 1.24965441f, 1.68913269f, 2.98841405f, 1.27083588f, 0.829288661f,
    1.99110675f, 2.76093721f, 2.25040627f, 1.90417898f, 2.0540247f, 1.15523803f, 1.69926906f, 1.85883689f,
};

constexpr float kBlock1PointwisePostBias[] = {
    0.102237031f, 0.244899094f, 0.593072474f, 0.55092144f, 0.87624532f, 0.0709686279f, 0.550380707f, -0.241746515f,
    0.287575573f, 0.166386977f, 0.663148522f, 0.0728797019f, -0.400592744f, 0.278929293f, 0.200490519f, 0.655445218f,
    0.865184903f, 0.671060503f, 1.3539865f, 0.383891433f, 0.96803385f, 0.323061287f, 0.832378745f, 0.530781865f,
    -0.12194407f, 0.479195118f, -0.109222949f, -0.14899531f, -0.350241035f, -0.134846866f, 0.308944643f, -0.114992693f,
    1.02723289f, 0.690830052f, 1.30601525f, 1.61844051f, 0.334667981f, 0.666499078f, 0.769368589f, 0.507541358f,
    0.358237982f, -0.722604632f, 0.366723776f, 0.263525546f, -0.0608666688f, 0.236482859f, 0.123221599f, -0.0601809025f,
    0.755111933f, 0.548665762f, 0.987858534f, 1.18394542f, 1.19390452f, 0.829452395f, 0.387864947f, -0.193210214f,
    -0.0945197493f, 0.510257125f, -0.0119548738f, 0.568246305f, -0.508119345f, -0.0327092409f, 0.630478978f, 0.760090828f,
};

constexpr int8_t kBlock2DepthwiseCodebook[] = {
    10, -18, -32, 3, 18, -9, 8, 40, 14, 13, -21, -14, -6, -25, 3, 19,
    16, 10, -31, -39, 15, 0, 34, 29, 82, 0, 9, 27, 0, -92, -10, -6,
    -1, 20, -15, -57, 1, 2, -22, 12, -39, 7, -61, -3, -23, -86, -17, 0,
    -19, 46, -8, -2, 14, 15, 1, 26, -75, -11, 0, 17, -32, 12, 2, -18,
    0, -4, 32, 13, 28, 1, 19, 1, -18, 5, -45, 16, -2, 23, -42, 12,
    0, 16, -2, -34, 1, -12, -8, -31, 9, 13, -4, -2, -120, 113, -35, -3,
    5, -1, 22, 24, 21, 1, 2, 5, 58, 8, -3, -35, -7, -33, 5, 7,
    -25, 2, 16, 35, -18, 5, 0, 31, 28, 23, 108, 24, -2, 27, -15, 10,
    12, 6, 12, 7, 69, -11, -33, 0, -37, 38, -15, 9, 18, -35, 13, 34,
    -19, 24, 2, -12, 25, 9, -20, 48, 0, -6, 26, -3, 20, 35, -21, 25,
    25, -29, -127, 4, -63, -29, 0, -13, 41, -21, -9, 2, 2, -25, 13, 1,
    29, -3, -1, 37, -22, 3, 16, -4, 3, 0, 31, 69, -2, 17, 65, 0,
    21, 20, 12, 3, 33, 11, -6, 0, 28, -12, -7, 2, 0, 22, -1, 6,
    -2, 7, -1, 19, 37, -26, -25, -1, 24, -1, 9, 13, 28, -1, -5, 13,
    -30, 2, 13, -12, -2, 63, -2, -12, 1, -26, 11, 5, -3, 33, -3, 0,
    -24, 37, -4, 1, 8, 30, -26, 6, 1, 17, -1, 6, 6, 41, -1, -4,
    -40, 40, -3, -21, 23, 26, -21, 53, 0, -2, 20, 18, -1, 1, 16, 39,
    18, 0, 16, 13, 0, 79, 21, 7, 2, 4, 32, 11, 22, -16, 18, 0,
    -29, 53, 41, 14, 10, 33, 14, 15, -62, 14, -1, 12, 37, 32, 26, 26,
    31, 25, -29, -27, -9, 3, 20, 10, -1, -12, -36, 0, 24, -66, 8, 28,
    -33, 15, -32, 5, -38, -25, 15, -34, 21, 0, 1, -7, 33, 20, 5, -36,
    -33, 3, 50, -27, -5, 20, -10, 2, 27, 7, 4, -11, 22, -16, -45, 0,
    3, -21, 15, -40, -9, 27, 2, -5, 46, -1, 4, 17, -45, -26, 46, 3,
    -56, 0, -10, 57, 15, 2, -1, 58, -46, 3, 3, 13, -1, -10, 36, 7,
    1, -18, 8, -1, -2, -7, -19, -1, 5, 26, -27, 4, -4, 5, -33, -3,
    12, -24, 4, -22, 4, -3, 1, -16, 6, 15, 0, 22, -20, -2, 10, 33,
    -20, 2, -14, 19, -25, 1, 16, -3, 20, 21, 13, 4, 1, 13, -58, -15,
    3, 17, -26, 10, 35, 0, 6, 0, -7, -37, -26, 0, 9, 8, -4, -41,
    8, 29, 0, 40, 12, 22, 11, -26, 12, 1, 29, -58, 7, 0, 14, -33,
    0, 6, -25, 4, -38, 44, -3, 3, 0, -26, -11, -16, -11, -5, -3, -47,
    36, 43, 9, -37, 49, 5, 11, 38, -27, 6, -35, 40, 1, -23, 14, -39,
    98, -4, 30, -8,
};

constexpr float kBlock2DepthwisePostScale[] = {
    5.03933477f, 20.0057278f, 4.22439861f, 11.0018511f, 12.9953775f, 11.5630722f, 4.24355888f, 7.48181677f,
    4.8608923f, 5.3580327f, 8.13385296f, 3.09577847f, 3.04445338f, 2.28423905f, 8.92820835f, 5.8953743f,
    3.96773529f, 5.15678453f, 5.49111509f, 8.00524521f, 6.60096312f, 2.65551376f, 2.93100142f, 5.20620775f,
    4.60235405f, 7.35284615f, 6.58115864f, 3.60529637f, 6.72038269f, 4.86007023f, 3.74246335f, 3.15845799f,
    2.97316909f, 3.00777841f, 2.67517924f, 5.82055616f, 9.11527157f, 4.17927408f, 5.05801821f, 10.2336712f,
    8.30457783f, 7.67280579f, 4.28731537f, 5.45331955f, 6.20294237f, 6.86949492f, 7.5867753f, 6.39641619f,
    4.33859777f, 3.69229388f, 9.18460083f, 9.47565174f, 5.47909451f, 11.5052776f, 6.79224539f, 25.3808899f,
    5.38979578f, 4.59287548f, 1.82244444f, 6.20658827f, 6.1426568f, 10.512682f, 3.89569831f, 3.88579416f,
};

constexpr float kBlock2DepthwisePostBias[] = {
    0.529336929f, -0.156579062f, -1.43080688f, -1.0481925f, -0.219809666f, -0.780450463f, 0.960234761f, 0.472196162f,
    -0.46082285f, -1.318483f, 1.36442947f, -1.00581408f, -0.465257734f, 0.581052423f, -0.971039295f, -0.772114158f,
    0.43461597f, -0.800473988f, -1.0051502f, 0.130487159f, 0.273752332f, 0.517573357f, 0.386102378f, -1.35124826f,
    0.824612319f, -0.396292508f, -0.632907093f, -0.605561495f, -0.75144875f, -0.0175121874f, -0.700262129f, 0.734605908f,
    -1.1907177f, -1.03013706f, 0.583579302f, -1.12333333f, -0.704696357f, 0.398414493f, -1.09020376f, 0.714832783f,
    -0.043459937f, -0.551738203f, -1.15725648f, 0.869744897f, -0.933342576f, -1.03283012f, -1.23842072f, -0.611661077f,
    -0.883783877f, -0.628685832f, -0.0633256733f, -0.339599133f, -0.908749759f, -1.13798451f, 0.070371598f, -0.813390017f,
    0.537449658f, 0.67638123f, 0.767539263f, 0.0436912179f, 0.250026286f, 0.725908518f, -0.731061816f, -0.0281604361f,
};

constexpr int8_t kBlock2PointwiseCodebook[] = {
    48, 16, 13, 10, -24, 12, -87, -7, -16, -40, -11, -44, -3, -6, 20, -36,
    -28, -17, -40, -30, -5, 28, -13, 0, 50, 40, -9, 35, 10, 24, 2, -14,
    27, 27, 0, -35, 1, 31, -6, -11, 20, -6, -37, 7, -14, 26, 30, -8,
    -18, 19, -50, -37, -6, 21, -17, -9, -47, -76, -11, -30, 44, -7, 10, -20,
    -4, 15, -22, 19, -3, 17, 18, 1, -41, -43, -39, 14, -35, 7, 1, 18,
    16, -29, -18, 5, 2, -32, 20, 10, -51, 3, -20, -5, -47, 28, -41, 15,
    -16, 10, -3, -127, 25, -10, 32, -14, -7, -5, 1, -10, -36, 14, -8, 0,
    -2, 25, -46, 6, -53, 4, 14, 7, 36, 35, 13, 26, 27, -3, 16, 17,
    6, -3, 24, -25, 1, -31, 2, -13, -12, -6, 0, 51, -37, -35, -9, 16,
    -32, -74, 30, -20, 14, 17, -27, -61, 16, -5, 22, -2, 27, 75, -37, -9,
    -3, 54, -36, 15, 16, -7, 39, 3, 49, -25, -11, -54, 5, -30, 9, 0,
    28, 47, -3, 0, -10, -33, -15, 8, 6, 19, -9, -13, -18, 56, 63, -37,
    12, -16, 43, -61, -28, 37, -12, 30, -44, 31, -25, -71, -66, 23, -4, 48,
    7, 36, -53, 6, -70, -65, -18, -20, 24, 17, -36, 28, -22, 17, -46, 36,
    5, -8, 6, 24, 1, -30, -23, -48, 16, -40, -18, -5, -31, -8, 18, 29,
    43, -10, -48, -1, 26, 42, 35, -23, -21, -35, 32, -30, 20, -21, 19, -33,
    19, -2, -11, -47, -5, -1, 32, -55, 17, -66, 28, -24, -30, -34, 6, -25,
    -3, -19, 12, 55, 19, 20, 23, -30, 49, -34, -11, 42, 33, -29, -5, -1,
    15, -18, -46, 12, -17, 18, 3, -53, 2, 17, -62, -26, -12, -14, 9, -5,
    24, 13, -5, -9, -28, -11, -14, 3, -23, 15, 19, 32, -42, 7, -23, -41,
    19, -74, 32, 23, -15, -43, 10, -1, 10, 24, -46, -42, -60, -2, -22, 43,
    19, 28, -33, -6, 35, -9, 14, -56, 1, 37, 61, -55, -12, -36, -17, -101,
    -6, 12, 9, -51, 1, -8, -45, 17, 30, 17, 17, -30, 37, -17, 31, -13,
    19, 5, -4, 25, -3, -15, -6, -45, 19, -46, -28, -53, -19, 19, 11, 3,
    -2, -3, -45, -1, 28, 16, 52, -39, 14, 56, 16, 23, 10, -53, 21, -2,
    -15, 10, 20, -22, -61, 44, 54, -5, -11, -41, -22, 5, -10, -39, 12, -38,
    -55, -38, -34, -14, -31, 19, 7, 39, 27, -10, 37, -20, 31, -2, -12, -20,
    -17, -9, 8, -33, 24, 13, -35, -13, -26, -37, 13, -1, -10, -27, 5, -57,
    -12, -14, 44, -55, -6, -9, 47, -53, -15, -57, -65, -33, -5, -7, -9, 8,
    -28, -26, 12, 54, -29, 1, -6, 57, -11, 56, 17, 93, 19, -2, 14, -11,
    -30, -46, -57, -17, 2, 56, 10, -5, -25, 31, 21, -3, 72, 20, -15, -49,
    -22, -31, -33, 28,
};

constexpr float kBlock2PointwisePostScale[] = {
    0.917589962f, 1.5343672f, 1.35226834f, 0.467993796f, 1.65300095f, 1.70264161f, 1.9847306f, 0.870355487f,
    1.4043839f, 1.4016788f, 1.3734827f, 1.46554267f, 1.64480662f, 1.44888711f, 0.935991824f, 1.35799372f,
    2.13785887f, 1.47865438f, 1.23269629f, 1.60122144f, 0.938421667f, 1.58028722f, 0.974500716f, 1.56390715f,
    0.704336464f, 1.11231947f, 1.08485305f, 0.974869072f, 1.47862446f, 0.396859139f, 2.14036369f, 1.19694316f,
    1.33339155f, 1.59828162f, 0.992692411f, 1.17569268f, 1.25689018f, 0.821860492f, 1.65237045f, 0.725502133f,
    1.90004826f, 1.07068574f, 0.773956716f, 1.14313674f, 1.130234f, 1.49158537f, 1.71379328f, 2.25947237f,
    0.600569487f, 0.950667739f, 1.13199639f, 1.47329819f, 2.47656465f, 0.896393418f, 0.771206319f, 1.75514936f,
    0.833865821f, 1.12379396f, 0.821831107f, 0.785467565f, 1.26047158f, 2.06254458f, 0.834910631f, 2.09306097f,
};

constexpr float kBlock2PointwisePostBias[] = {
    0.213708699f, 0.846419215f, 0.197556585f, 0.893969655f, 0.16404666f, 0.666876137f, 1.20276773f, -0.122985303f,
    0.328231454f, 0.0256122649f, 0.426726669f, -0.0638471246f, 0.774533093f, 0.463900685f, -0.0912209451f, 0.726246178f,
    -0.231274605f, 1.09037578f, 0.244924873f, 0.0634472817f, 0.507350087f, 0.457049012f, 0.03679353f, 0.802262783f,
    -0.506761551f, 0.115521044f, 0.0505770743f, -0.504822433f, -0.228000879f, 0.73946166f, 0.332238078f, 0.628765821f,
    0.190469503f, -0.0326234996f, 0.493581802f, 0.616253018f, 0.9371562f, 0.991819978f, 0.457627416f, 0.120262861f,
    0.865105867f, 0.436968893f, 0.0887439549f, -0.111808807f, -0.068948403f, 0.266554624f, 0.528472304f, 0.459310383f,
    0.709913611f, 0.165424436f, -0.180991217f, 1.26314032f, 1.09130299f, 0.345013618f, 0.138863236f, 0.148583561f,
    -0.324238598f, -0.177376449f, -0.262843162f, -0.206654608f, 0.155639619f, -0.0349825323f, 0.626667738f, 0.392569423f,
};

constexpr int8_t kBlock3DepthwiseCodebook[] = {
    4, 0, -1, 31, 17, -1, 6, 32, 13, -1, -25, 15, 0, 17, 65, 2,
    1, -7, 24, 10, -1, 13, 18, -1, -22, -14, 24, -2, -5, 9, 6, 1,
    8, 24, 3, 0, 16, 0, 3, -13, 38, 12, 2, -28, 2, 18, 3, -23,
    11, 1, 14, 27, 11, -4, -13, 15, -25, 7, -18, -1, 2, 20, 23, 19,
    2, 10, 16, 12, -9, -86, 1, -5, 24, -81, 24, 1, 14, -14, 3, 14,
    -54, 11, -3, -22, 24, -5, -127, 15, 9, 18, -12, -60, 21, 1, 16, -37,
    10, -13, -18, 12, -58, -19, 18, 22, -2, -46, -26, 17, 16, -46, 12, 32,
    -19, -3, -14, -13, -18, 4, 11, -9, -44, 15, 18, 45, 0, 11, -18, -23,
    -31, 8, -10, 16, 13, 14, -8, 0, 5, 14, 1, 17, 15, -63, 3, -10,
    19, 34, 0, 19, -66, -5, 15, 9, 4, -2, -87, 20, 33, 1, -24, -12,
    17, 8, 11, 12, -3, 17, -26, 22, -3, 25, 1, 17, -22, 18, -11, -3,
    -31, 0, -7, 1, 20, 20, -32, -2, 7, -48, 1, -10, 26, 5, 1, 17,
    24, -32, 2, -19, 5, 1, 15, -44, -7, -1, 14, 40, 18, 3, -52, -8,
    0, -34, 26, -6, 3, 8, 16, 26, 1, 17, 13, -41, 14, -14, 10, 2,
    -27, 14, 9, 3, -58, -15, -23, 13, -44, 24, 3, -79, 12, -32, -2, -5,
    -5, 13, 12, 14, 34, -2, 22, 32, 14, -121, 11, 9, -10, -25, 18, 20,
    2, -78, -10, 0, 15, 18, 14, -6, 30, 32, 16, 0, -17, -5, 9, 4,
    8, 16, -20, -7, -24, 3, -123, -16, 15, -6, -17, 9, 17, 15, 9, -2,
    -34, 47, -37, 27, -11, 1, 9, 10, 14, -9, 3, 15, 17, 14, 9, -20,
    -23, -4, 14, 26, -36, -3, 4, -41, 16, 20, 18, -5, 2, -43, 14, -13,
    1, -22, 24, 12, 14, 7, -16, -1, -4, 17, -19, 2, 9, -12, 2, 6,
    12, -7, 0, -9, -4, 26, 0, 14, -20, 0, 2, 14, -30, 1, -92, 32,
    3, -5, -9, 3, -22, -1, 5, -36, 1, -26, -15, -5, -2, 11, -10, -11,
    0, 6, 11, -1, 18, 0, 20, 3, 7, -8, -43, 4, -1, 13, -58, 24,
    -13, -3, 1, 22, -34, -38, -1, -13, -7, 34, 13, 20, -11, 4, 18, 19,
    1, 1, 0, 13, 18, 12, 22, -5, 1, 47, 20, -6, 16, -48, 11, -8,
    14, 21, -7, 0, -53, -31, 13, 28, 11, 11, 10, 28, 16, -9, 0, -45,
    19, 7, 4, 38, -4, -16, -20, 28, 14, 25, -29, -12, -10, -45, 13, 4,
    -88, 34, -1, 10, 34, 14, -15, 13, 9, 11, -11, -29, 15, -2, 15, 9,
    21, 13, -5, -5, 14, 11, -45, 10, 2, -38, -74, 19, 23, -6, 22, 1,
    15, -29, 30, 0, 9, 12, 14, -1, -7, 17, 0, 5, 28, 17, 1, 4,
    -15, 8, 9, 7,
};

constexpr float kBlock3DepthwisePostScale[] = {
    48.2479591f, 1.1361258f, 2.74456453f, 4.51871872f, 3.65407801f, 3.25323129f, 9.80417538f, 33.630722f,
    6.64637518f, 1.46517742f, 3.83691955f, 2.95574212f, 3.30374098f, 3.08033037f, 11.3427334f, 3.80424666f,
    2.98820734f, 3.39833713f, 6.48718786f, 3.87281108f, 8.80635357f, 8.14434338f, 5.95369101f, 2.30292153f,
    71.988327f, 2.85812426f, 11.8159313f, 14.5890779f, 2.78309798f, 10.6223497f, 3.28235292f, 6.26199913f,
    11.6895971f, 5.54001188f, 15.7006702f, 4.83125925f, 1.50062931f, 4.33848381f, 3.44506788f, 20.6150627f,
    2.94674921f, 4.9861393f, 1.50521648f, 24.7328014f, 5.9028697f, 4.71634865f, 3.28635979f, 5.41680193f,
    6.83483791f, 14.1722698f, 16.5551777f, 3.37302399f, 2.44272923f, 5.44459295f, 49.0423393f, 2.26029682f,
    70.4194183f, 30.2523785f, 7.77053499f, 60.9864349f, 11.7592287f, 9.92189121f, 4.14502811f, 2.77538276f,
};

constexpr float kBlock3DepthwisePostBias[] = {
    -0.790444493f, 0.925536871f, -0.18222937f, -1.40155089f, -0.966346145f, 0.361792177f, -1.39470685f, -0.654981732f,
    -1.00219321f, -0.693857908f, 0.490018666f, -0.0742314756f, -1.11325002f, -0.981051862f, 0.280505419f, 0.337277681f,
    0.0421913862f, 0.282387108f, -1.25069523f, 0.0680572689f, -0.926056385f, -0.942725897f, -0.157553881f, -1.18951535f,
    -0.649757981f, -0.265133917f, -0.84862721f, -0.920262098f, 0.105768502f, -1.2098825f, -1.09027123f, -0.491835475f,
    -0.902608395f, -0.067476511f, -1.47442913f, 0.2813344f, 0.501612961f, -1.24850726f, -0.957023501f, -0.804628551f,
    0.431592047f, 1.22569656f, -0.452299625f, -1.13961697f, 0.733981907f, -0.191225499f, 0.293298364f, 0.373086333f,
    -1.33171797f, -0.0417872667f, -1.08464348f, 0.1449112f, 0.444393933f, -1.2044642f, -0.391246527f, 0.00665435195f,
    -0.649320126f, -0.675077617f, 0.0645111501f, -1.0295577f, -0.69645375f, -0.82826221f, -1.17562747f, 0.494880885f,
};

constexpr int8_t kBlock3PointwiseCodebook[] = {
    32, 84, 17, 16, 48, 16, 43, 28, 9, -6, -20, 18, -32, 7, 115, 25,
    9, 18, -22, 7, -4, 15, 3, -8, -19, -9, 62, -23, 3, 21, 3, 34,
    24, 1, -5, 13, -27, 123, 1, 6, 32, 18, -16, -5, -11, -4, 44, -11,
    -10, 20, -5, -30, 7, 7, 89, -22, 33, 7, 5, 42, -3, -27, 0, -21,
    13, 65, 43, -7, 28, -18, 49, -19, 20, -9, 1, 0, -25, -10, 5, -49,
    6, -10, 2, -14, -22, -27, 22, 16, -33, 32, -32, 6, -44, -14, -13, -3,
    25, 0, 80, -12, -35, 41, 4, -11, -38, -31, -44, -6, -22, -9, -24, -7,
    -37, -34, 35, -9, -30, 6, -18, 10, 26, 7, 78, 2, 9, 99, 1, -10,
    18, -11, -15, 18, -16, 76, 9, -11, -66, -40, 5, 31, -5, 32, 8, -15,
    32, -12, -5, -59, -10, 6, 82, 13, -8, -13, -6, -32, 43, 0, -27, 61,
    -33, -9, 7, 16, 45, 49, 31, 0, -20, 4, 5, 12, -5, -32, 9, 49,
    16, -11, -16, -11, -46, -44, -1, -13, 42, 17, 9, 42, 5, -25, -26, 14,
    2, 28, 17, -30, 57, -2, 46, 24, -5, -22, 32, -59, 29, -11, 0, 51,
    -5, 9, -5, 33, -7, -4, -1, -13, -38, 44, 47, -34, -4, 8, 74, -11,
    89, -24, 3, -2, -34, -41, 10, -1, -12, 67, 37, 12, 2, 4, -10, 4,
    -42, -46, -19, -10, -68, 28, -21, 18, 15, 23, 127, -27, 6, 48, -17, -3,
    8, 15, -1, 4, 9, 3, -5, -12, 22, -18, -31, -44, -14, -53, -16, -11,
    7, 3, -8, -32, -15, -10, 25, -31, -16, 29, 38, -11, 21, 69, 0, 7,
    -69, -23, 32, 19, -4, 62, 36, -22, 64, -16, -5, -36, 17, 7, -24, 3,
    1, 19, -16, -9, -11, -9, -61, 10, -6, -15, -12, 8, 5, 13, 28, 12,
    -8, 1, 27, 3, 3, -41, -12, -4, 20, -18, 16, -17, -7, -29, 26, 96,
    15, -13, 10, 55, -17, -24, -6, 55, 3, -9, 8, 11, -14, -13, 23, 55,
    11, 2, 25, 7, 21, -6, -34, -9, -2, 3, 75, 88, -19, -11, 36, -11,
    28, -14, 25, -13, 5, -23, 46, 28, -8, -40, 5, -28, -29, -4, -25, 4,
    -26, -5, 19, -5, -2, -2, -14, 20, -40, 50, 37, 4, 4, 20, -32, -11,
    -14, 23, 51, -30, 120, 50, -43, -44, 11, -10, 29, -22, 27, 9, 0, 5,
    13, 10, -20, 2, 24, 16, -22, 2, -14, -5, -7, -38, 3, -4, 11, -10,
    -26, -21, 23, 4, 2, 7, 5, -10, -37, -9, -17, -11, -8, 6, -17, -5,
    18, -30, 4, 17, -14, 30, 37, -13, 37, 36, -19, 24, -47, -16, -3, 49,
    -37, -18, 17, 40, -13, 55, 21, 66, -6, 3, 49, -39, 21, 5, 53, 61,
    12, 47, 16, 1, 30, -23, -33, 68, -14, 43, -17, -3, 42, -28, -20, 23,
    -12, 12, 121, 37,
};

constexpr float kBlock3PointwisePostScale[] = {
    5.83157015f, 6.38527012f, 8.65911865f, 4.59118319f, 5.10033369f, 6.8798089f, 12.0073042f, 5.71038532f,
    5.61795759f, 10.6019421f, 8.45257473f, 6.35755062f, 6.3843174f, 5.12247467f, 3.85368967f, 6.04757929f,
    5.42861128f, 7.09815025f, 3.88781452f, 9.77070332f, 6.94693232f, 8.35229206f, 6.86954832f, 7.0542655f,
    5.79902744f, 6.28863478f, 7.39705896f, 8.31702232f, 5.31456614f, 6.48951387f, 5.08287191f, 4.92903137f,
    5.99196815f, 7.34049892f, 7.91790438f, 10.0643339f, 8.44652939f, 10.1454306f, 10.1304874f, 6.91457939f,
    9.34891129f, 8.42470264f, 6.4563117f, 6.45275688f, 7.4738307f, 4.98658276f, 4.70957518f, 5.803514f,
    10.2612839f, 5.40911341f, 6.83122015f, 8.63717175f, 6.2925868f, 5.90203238f, 9.25614834f, 5.10992765f,
    6.74563408f, 8.78823471f, 11.5108643f, 4.96067238f, 5.74043322f, 8.53876209f, 7.24699402f, 5.82911921f,
};

constexpr float kBlock3PointwisePostBias[] = {
    0.261763781f, 0.809175849f, -1.02241278f, -0.21987325f, 0.38150239f, -1.62890375f, -0.96449101f, -0.370645255f,
    -0.588965535f, -1.88079321f, -0.0874642134f, -0.158610508f, -0.000660598278f, -0.51749444f, -0.214680582f, -0.263795972f,
    -0.00769367814f, -0.927231073f, -0.675605237f, -0.825585723f, -0.389058679f, -0.29807362f, -1.09560323f, -0.53105998f,
    -1.54766166f, -1.44800377f, -0.791611671f, -0.683110118f, -1.63014197f, -0.87794131f, -0.717519641f, -1.03055036f,
    -1.2718116f, -0.572460473f, -1.46188986f, -0.929856598f, -0.670378685f, 0.0288996696f, -0.70103991f, -0.819942296f,
    0.0135489702f, -0.454942465f, -1.13333178f, -0.296949685f, -0.190105379f, -0.996610045f, -1.06896853f, -0.221730649f,
    -0.467667222f, -1.04693758f, -0.392071307f, -0.549274802f, -0.508724272f, -0.710817218f, -0.0807201862f, -0.389961123f,
    -0.856827736f, 0.381766379f, 0.194760919f, -0.967772663f, -0.608191907f, 0.966904104f, -0.77391392f, -1.11513257f,
};

constexpr int8_t kClassifierCodebook[] = {
    0, 1, -102, 23, -40, -85, 81, -2, 17, 7, -19, 16, 13, -53, 1, 1,
    0, 24, 6, -75, -35, -18, -36, -62, -93, -10, 18, -47, -28, -33, -49, 16,
    -30, 83, -92, 6, -11, -55, 127, -61, 16, 27, 13, -58, -69, -19, 61, -48,
    -45, 25, 31, -89, -10, 28, -14, -76, -10, -42, -52, 4, -10, -60, -52, -71,
    -58, 123, -70, 0, 0, -37, 1, -12, -76, 7, -66, 83, 6, 3, 43, 17,
    -22, -1, 0, 8, 30, -79, 90, -45, 52, 86, 53, -49, -68, -85, -75, 0,
    2, -50, 60, 75, -23, -63, -68, 7, 2, 8, -45, -38, 10, -6, -44, 69,
    13, -29, -26, -9, -19, -4, 52, 47, -26, 64, -79, -25, -18, 101, -28, 12,
    -54, -46, -21, -66, -39, -23, -49, -3, 31, 23, -24, -42, 48, 48, -22, -15,
    5, -46, 120, 67, 1, -1, -55, -23, -37, -35, -45, -54, 92, 41, -115, -35,
    -45, 16, 0, 0, 64, 7, -91, -48, -57, -74, -62, -30, 93, -3, -76, 9,
    1, -1, -73, 21, 20, 41, -37, -78, -64, -21, 87, -6, 60, -13, -1, -6,
    -73, 68, 5, -46, -15, -42, 4, -58, -21, -29, 29, -77, -22, -23, 83, 61,
    31, 96, -83, -18, -36, 119, 81, 20, -81, 64, -1, 6, -48, -34, 118, -36,
    -2, 48, 66, -60, -38, -1, 0, -74, 27, -60, -25, -41, 14, -73, 23, -78,
    -3, -30, 16, 1, -1, -79, -21, -53, 15, -43, -76, -41, -26, -76, -12, -39,
    -16, 0, 2, -64, 12, -10, -42, -47, 18, 69, -73, -31, -40, 53, 4, 0,
    -13, -53, -28, 123, -70, -42, -39, 57, -99, -66, -56, -35, -11, 17, -16, -41,
    26, -2, -47, -45, -59, -81, -27, 36, 35, 19, 50, -12, -32, -30, -21, -2,
    73, -37, -57, 3, -30, -4, -30, -1, 21, -5, -6, -69, 50, 88, -50, -4,
    -73, -61, -21, -24, 0, -1, -103, -1, -49, 87, -11, -27, 85, -35, -82, -19,
    -33, -36, -1, 0, -40, 1, -40, -60, -16, -47, -69, 39, -36, -9, -80, -34,
    0, -2, -42, 41, 50, 3, -23, -56, -32, -59, 96, -23, 45, 38, -13, 7,
    -118, -37, 29, 68, 22, 10, -24, -61, -11, -45, -11, -52, 19, -50, -67, 15,
    34, 10, -47, -96, -33, 97, -62, -10, 0, 36, -7, -44, -38, -30, -25, -50,
    2, 10, -42, -30, -65, 0, 0, -80, 6, 35, -4, -54, 9, 71, -57, 8,
    -38, -14, -36, 0, 1, -49, 30, -63, -88, -56, -50, 17, 4, -51, 25, -59,
    -42, 0, -1, -31, 55, -42, -81, -58, 3, -18, -25, 48, -52, 42, -66, -5,
    -39, -58, 59, 56, 106, -52, 14, 71, -10, 51, -34, -57, -1, 10, -74, -23,
    83, 91, -53, 74, -1, -36, 54, 40, -2, -57, -59, -52, -29, -38, -65, -39,
    35, -14, -101, -69, -27, -47, 0, -1, 27, 2, -12, -83, -29, 43, 7, -42,
    83, 41, 36, 29,
};

constexpr float kClassifierBias[] = {
    0.0167008918f, -0.124071032f, 0.115727998f, 0.10656894f, 0.46967721f, -0.215417817f, -0.266257524f, -0.221629858f,
    -0.132646248f, 0.18248111f, 0.0445794202f, -0.191212162f,
};

}  // namespace

const HashDscnnModelData g_hash_model = {
    true,
    40,
    49,
    1,
    64,
    4,
    12,
    {
    kStemCodebook,
    0.00486822016f,
    kStemPostScale,
    kStemPostBias,
    500,
    1,
    64,
    3,
    3,
    2,
    2,
    1,
    1,
    0,
    false,
},
    {
        {
    kBlock0DepthwiseCodebook,
    0.00470016885f,
    kBlock0DepthwisePostScale,
    kBlock0DepthwisePostBias,
    500,
    64,
    3,
    3,
    1,
    1,
    1,
    1,
    1,
    false,
},
        {
    kBlock1DepthwiseCodebook,
    0.00377819083f,
    kBlock1DepthwisePostScale,
    kBlock1DepthwisePostBias,
    500,
    64,
    3,
    3,
    1,
    1,
    1,
    1,
    3,
    false,
},
        {
    kBlock2DepthwiseCodebook,
    0.00416722683f,
    kBlock2DepthwisePostScale,
    kBlock2DepthwisePostBias,
    500,
    64,
    3,
    3,
    1,
    1,
    1,
    1,
    5,
    false,
},
        {
    kBlock3DepthwiseCodebook,
    0.00515738388f,
    kBlock3DepthwisePostScale,
    kBlock3DepthwisePostBias,
    500,
    64,
    3,
    3,
    1,
    1,
    1,
    1,
    7,
    false,
}
    },
    {
        {
    kBlock0PointwiseCodebook,
    0.00254094765f,
    kBlock0PointwisePostScale,
    kBlock0PointwisePostBias,
    500,
    64,
    64,
    1,
    1,
    1,
    1,
    0,
    0,
    2,
    false,
},
        {
    kBlock1PointwiseCodebook,
    0.00229064991f,
    kBlock1PointwisePostScale,
    kBlock1PointwisePostBias,
    500,
    64,
    64,
    1,
    1,
    1,
    1,
    0,
    0,
    4,
    false,
},
        {
    kBlock2PointwiseCodebook,
    0.00352387987f,
    kBlock2PointwisePostScale,
    kBlock2PointwisePostBias,
    500,
    64,
    64,
    1,
    1,
    1,
    1,
    0,
    0,
    6,
    false,
},
        {
    kBlock3PointwiseCodebook,
    0.00330732376f,
    kBlock3PointwisePostScale,
    kBlock3PointwisePostBias,
    500,
    64,
    64,
    1,
    1,
    1,
    1,
    0,
    0,
    8,
    false,
}
    },
    {
    kClassifierCodebook,
    0.0116869953f,
    kClassifierBias,
    500,
    64,
    12,
    9,
    false,
},
    {
        {1.00787402f, 0.0428081798f},
        {0.0428081798f, 0.0864292655f},
        {0.0864292655f, 0.0644126126f},
        {0.0644126126f, 0.141896045f},
        {0.141896045f, 0.0904647121f},
        {0.0904647121f, 0.121194697f},
        {0.121194697f, 0.0694761426f},
        {0.0694761426f, 0.370951555f},
        {0.370951555f, 0.626048111f}
    },
};

}  // namespace hash_kws
